Language model created by QuickLM on Mon Nov 16 13:44:06 EST 2020
Copyright (c) 1996-2010 Carnegie Mellon University and Alexander I. Rudnicky

The model is in standard ARPA format, designed by Doug Paul while he was at MITRE.

The code that was used to produce this language model is available in Open Source.
Please visit http://www.speech.cs.cmu.edu/tools/ for more information

The (fixed) discount mass is 0.5. The backoffs are computed using the ratio method.
This model based on a corpus of 8 sentences and 10 words

\data\
ngram 1=10
ngram 2=16
ngram 3=8

\1-grams:
-0.7782 </s> -0.3010
-0.7782 <s> -0.2218
-1.6812 BACKWARD -0.2218
-1.6812 FORWARD -0.2218
-1.6812 GOODBYE -0.2218
-1.6812 LEFT -0.2218
-1.6812 RIGHT -0.2218
-1.6812 ROBOT -0.2218
-1.6812 START -0.2218
-1.6812 STOP -0.2218

\2-grams:
-1.2041 <s> BACKWARD 0.0000
-1.2041 <s> FORWARD 0.0000
-1.2041 <s> GOODBYE 0.0000
-1.2041 <s> LEFT 0.0000
-1.2041 <s> RIGHT 0.0000
-1.2041 <s> ROBOT 0.0000
-1.2041 <s> START 0.0000
-1.2041 <s> STOP 0.0000
-0.3010 BACKWARD </s> -0.3010
-0.3010 FORWARD </s> -0.3010
-0.3010 GOODBYE </s> -0.3010
-0.3010 LEFT </s> -0.3010
-0.3010 RIGHT </s> -0.3010
-0.3010 ROBOT </s> -0.3010
-0.3010 START </s> -0.3010
-0.3010 STOP </s> -0.3010

\3-grams:
-0.3010 <s> BACKWARD </s>
-0.3010 <s> FORWARD </s>
-0.3010 <s> GOODBYE </s>
-0.3010 <s> LEFT </s>
-0.3010 <s> RIGHT </s>
-0.3010 <s> ROBOT </s>
-0.3010 <s> START </s>
-0.3010 <s> STOP </s>

\end\
